{
  "model_type": "logistic_regression",
  "model_version": "1.0.0",
  "class_labels": [
    "Normal",
    "Limp",
    "Shuffling",
    "Unstable",
    "Stiff-Knee"
  ],
  "n_classes": 5,
  "n_features": 83,
  "preprocessing": {
    "numerical_features": [
      "Xvel_mean",
      "Xvel_var",
      "Xvel_std",
      "Xvel_max",
      "Xvel_min",
      "Xvel_pk",
      "Xvel_mid",
      "Xvel_rms",
      "Xvel_abs_xbar",
      "Xvel_r",
      "Xvel_S",
      "Xvel_K",
      "Yvel_mean",
      "Yvel_var",
      "Yvel_std",
      "Yvel_max",
      "Yvel_min",
      "Yvel_pk",
      "Yvel_mid",
      "Yvel_rms",
      "Yvel_abs_xbar",
      "Yvel_r",
      "Yvel_S",
      "Yvel_K",
      "Zvel_mean",
      "Zvel_var",
      "Zvel_std",
      "Zvel_max",
      "Zvel_min",
      "Zvel_pk",
      "Zvel_mid",
      "Zvel_rms",
      "Zvel_abs_xbar",
      "Zvel_r",
      "Zvel_S",
      "Zvel_K",
      "knee_mean",
      "knee_var",
      "knee_std",
      "knee_max",
      "knee_min",
      "knee_pk",
      "knee_mid",
      "knee_rms",
      "knee_abs_xbar",
      "knee_r",
      "knee_S",
      "knee_K",
      "ankle_mean",
      "ankle_var",
      "ankle_std",
      "ankle_max",
      "ankle_min",
      "ankle_pk",
      "ankle_mid",
      "ankle_rms",
      "ankle_abs_xbar",
      "ankle_r",
      "ankle_S",
      "ankle_K",
      "step_length",
      "stride_length",
      "left_step_length",
      "right_step_length",
      "left_stride_length",
      "right_stride_length",
      "stride_speed",
      "stride_time",
      "step_width",
      "mean_stride_length",
      "stride_length_asymmetry",
      "mean_step_length",
      "step_length_asymmetry",
      "knee_rom",
      "ankle_rom",
      "knee_cv",
      "ankle_cv"
    ],
    "scaler_means": [
      0.13810298044504193,
      0.038298641744282484,
      0.1559889771343257,
      0.693480940714952,
      0.0037278827390900935,
      0.693480940714952,
      0.07022745338904361,
      0.2094296221683256,
      0.13810298044504193,
      0.10173949695210001,
      1.709946571376479,
      6.1013081151764865,
      0.8601038468284634,
      0.9540960601140507,
      0.9315563513771391,
      2.830088025905295,
      0.005967060352831876,
      2.830088025905295,
      0.36755378709377956,
      1.2691817816553057,
      0.8601038468284634,
      0.5709695588577831,
      0.8391991191685807,
      2.3578729631180324,
      0.23542052345695047,
      0.10006794142886494,
      0.2505320455715182,
      0.9136098598189296,
      0.003460728597957212,
      0.9136098598189296,
      0.12449966218994547,
      0.34579245340330855,
      0.23542052345695047,
      0.16930441611549715,
      0.9391029972515446,
      2.7817294536605406,
      159.25900744333504,
      146.0714366259712,
      11.145765296865054,
      172.29014421294974,
      132.815869785368,
      172.29014421294974,
      163.6125678997553,
      159.74311947906241,
      159.25900744333507,
      158.9945547518025,
      -0.892190476578289,
      3.0595770618243696,
      105.0258631358051,
      42.858369432597705,
      6.287278871419149,
      122.0064271393774,
      93.15934117450178,
      122.0064271393774,
      104.68184557942814,
      105.23000922778006,
      105.0258631358051,
      104.92365845800884,
      0.3259014489781542,
      3.1791481352971562,
      0.4095817203435192,
      0.8211080521535281,
      0.46065864725288563,
      0.4290691873444988,
      0.8455701580656688,
      0.8442112585274738,
      1.5545494695926465,
      0.6361962793473935,
      0.22698191544408883,
      0.8448907082965714,
      0.3694668446411933,
      0.4448639172986922,
      0.2131535253575308,
      35.57308808319598,
      27.109768664171185,
      0.07820764991208319,
      0.06569025131370894
    ],
    "scaler_scales": [
      0.08144600641772953,
      0.06813366333917885,
      0.1181781737753183,
      0.4811487667960237,
      0.0019760898704632157,
      0.4811487667960237,
      0.02550824525115926,
      0.1419287154592592,
      0.08144600641772953,
      0.04818541398997636,
      0.6829335848792247,
      4.4419515737074065,
      0.32192733952729846,
      0.4865146074147958,
      0.29376661539896404,
      0.7654559229769591,
      0.00535034352582666,
      0.7654559229769591,
      0.21345620980676275,
      0.43207580873332796,
      0.32192733952729846,
      0.22837322507448865,
      0.38712041755934057,
      1.283935858157307,
      0.06645861661247944,
      0.735283583184299,
      0.19313631344368076,
      1.6013981077857924,
      0.0021417897279970032,
      1.6013981077857924,
      0.047860123245030715,
      0.20083598080268078,
      0.06645861661247944,
      0.046657457113452254,
      0.47721096114607414,
      3.4616072850622874,
      9.81554642049027,
      154.09920886632165,
      4.673687256671103,
      7.110316472724304,
      19.73660516597652,
      7.110316472724304,
      9.841414285277748,
      9.379958373736374,
      9.815546420490275,
      10.093015139017611,
      0.6349024886131738,
      2.4429464278470485,
      12.080744929918232,
      24.785816306130616,
      1.8244160231712687,
      15.28000328585014,
      13.63970256351105,
      15.28000328585014,
      11.836247408814355,
      12.078073225334045,
      12.080744929918227,
      12.083743107258522,
      0.67157902571998,
      1.665940258366905,
      0.12285467527027924,
      0.24963017975712698,
      0.09273319858772028,
      0.13828728227410703,
      0.3153742729153878,
      0.31962839617180655,
      0.5443600377443402,
      0.23420668492350194,
      0.04317541327395831,
      0.2912609220683012,
      0.7611629582284754,
      0.10720605632859752,
      0.38611215312535263,
      18.450406171854997,
      10.726798534938121,
      0.04659284330957875,
      0.02274762328568407
    ],
    "categorical_features": [
      "task",
      "session"
    ],
    "ohe_categories": {
      "task": [
        "task_cup",
        "task_normal",
        "task_text",
        "task_web"
      ],
      "session": [
        "time01",
        "time02"
      ]
    }
  },
  "weights": {
    "coefficients": [
      [
        0.06609090053828699,
        0.015588878058418312,
        0.04974311446946729,
        0.0011127929173771667,
        0.03797578401977282,
        0.0011127929173771667,
        0.060443718179823185,
        0.03900979546278569,
        0.06609090053829807,
        -0.030066633772583517,
        0.014903796738035206,
        0.08405697295739574,
        0.006649469161599078,
        0.30469988884893295,
        -0.0286599870500598,
        0.12417233998721462,
        0.046212473679428046,
        0.12417233998721462,
        0.049323142697621024,
        -0.030546408685360443,
        0.006649469161586664,
        -0.1345072977585171,
        0.022947309717685646,
        -0.08212637336619805,
        -0.10404629449249962,
        0.03379857439295821,
        -0.0796255608192694,
        -0.021627559867410127,
        0.026218012804333047,
        -0.021627559867410127,
        -0.035565514118491195,
        -0.06741744953911372,
        -0.10404629449249128,
        0.11351089171138674,
        0.16729233463531384,
        -0.14573421079224702,
        0.003957965628546398,
        0.49925330444405835,
        -0.13631960148954242,
        -0.18074521850472622,
        0.9971703558518051,
        -0.18074521850472622,
        -0.08292790468480804,
        0.04265659217687314,
        0.0039579656285651564,
        -0.011776570409090222,
        0.02917243183406447,
        -0.45891134097195785,
        -0.10095437413832849,
        0.2286557712736341,
        0.49046231514069805,
        -0.14476665730018692,
        0.023915091972134955,
        -0.14476665730018692,
        0.2732938141598656,
        -0.09627228365792727,
        -0.10095437413832031,
        -0.1035523170605576,
        -0.021496136586739087,
        -0.149422807215188,
        1.27421560761709,
        1.1202759327106997,
        -0.4888861077518914,
        -0.49043531472375795,
        -0.49259206075023815,
        -0.5248835865713798,
        0.19398644138167714,
        0.21276649811213236,
        -0.49352492046320695,
        -0.5546891763941313,
        -0.8661661357205207,
        -0.5277544161054304,
        -0.11353267801481705,
        2.8286900926714384,
        0.6937284908005563,
        -1.667486599306066,
        -1.2799501306730452,
        -0.15929747648332584,
        0.04151565497606284,
        0.06639512502557314,
        0.18985333601511564,
        0.0822636909694483,
        0.05620294856397432
      ],
      [
        -0.14085305991903418,
        0.3659809170913065,
        -0.014873478143937502,
        0.003380438915439072,
        -0.03251641083025042,
        0.003380438915439072,
        0.18229467805448704,
        -0.03165085188392761,
        -0.14085305991904165,
        -0.10474505612838844,
        0.16075007264997734,
        -0.05016617283706631,
        0.10739577527091938,
        -0.509737555439796,
        0.26874060796650284,
        -0.027841354300000294,
        0.04304644439805691,
        -0.027841354300000294,
        -0.2071122393539779,
        0.20791327955312858,
        0.10739577527093774,
        0.2148203161852195,
        0.1882216114509564,
        0.012056426968272154,
        0.04397669875851613,
        -0.13663800790071107,
        -0.032149439570098116,
        -0.011714782019062888,
        0.012396387380019767,
        -0.011714782019062888,
        -0.024649818103187046,
        -0.037566129698888936,
        0.04397669875851957,
        -0.12466637087501856,
        -0.1935291702411809,
        0.13849921315666322,
        -0.009347225099379087,
        0.14883000430459567,
        -0.06919622630805158,
        -0.19219801524546745,
        0.8713645430954886,
        -0.19219801524546745,
        0.06898107879153413,
        0.06623909779625997,
        -0.009347225099381924,
        -0.04416756970743987,
        0.07426845053284903,
        -0.46662386485221685,
        0.02957904660025006,
        0.08820281197114714,
        0.6680110313761197,
        -0.20305296856369384,
        0.1136970301528471,
        -0.20305296856369384,
        -0.27541665900826057,
        0.040024077298824394,
        0.02957904660023499,
        0.02502882182952888,
        0.01864148432425784,
        -0.15030031622990409,
        0.8784564940415662,
        1.0613496653466465,
        -0.9878990753646874,
        -0.1253052284392538,
        0.5045691109140783,
        0.44911541210767525,
        -0.35178966226488545,
        -0.1585208222373884,
        -0.41332230467657155,
        0.5195996654970552,
        0.7136188275354064,
        -0.5080830522396526,
        0.709086942177028,
        2.751379638660912,
        0.7368033585437378,
        -1.2925211622984347,
        -1.4146244422157208,
        -0.11391976461972146,
        -0.019452551054036368,
        0.07380793321715176,
        0.22734871139803228,
        0.07865659614707318,
        0.08912773279435987
      ],
      [
        -0.04372346620956171,
        -0.07794235196667114,
        0.041650877088471594,
        0.009391173284835267,
        0.10193897262824565,
        0.009391173284835267,
        0.0017067976058408587,
        0.009009309409472251,
        -0.043723466209561364,
        -0.01046600678087172,
        0.09599988723571146,
        -0.02164820657623797,
        0.038609012101215236,
        -0.08245297930963659,
        -0.011419670723825753,
        0.08392554235867651,
        -0.003063567108905185,
        0.08392554235867651,
        0.03430104077524185,
        0.0074355080262250494,
        0.03860901210121433,
        0.0713400607308444,
        -0.2661426232179167,
        0.06405136359354105,
        -0.011911054281304748,
        -0.0035170632672641114,
        -0.03168977823051204,
        0.02337426673555124,
        -0.018020278845378702,
        0.02337426673555124,
        0.10369701095056472,
        -0.02680358506062025,
        -0.011911054281304654,
        0.0697776258972239,
        0.043142692052923,
        0.009109199783729179,
        0.003965468747270547,
        0.02654718064490728,
        -0.08333671310804211,
        0.035481322629465836,
        -0.23137570429813278,
        0.035481322629465836,
        -0.12843503554584662,
        -0.0013391045148364975,
        0.003965468747271438,
        0.002443405897205073,
        -0.0020309401237850184,
        -0.018447044488791944,
        -0.026503747741890328,
        0.3795009517004319,
        0.44888838066877873,
        0.2852286308217727,
        -0.32739678258394467,
        0.2852286308217727,
        0.0305323012271739,
        -0.024226969943266015,
        -0.026503747741889686,
        -0.02770309018848306,
        -0.19926432233077254,
        0.35057175971345467,
        -2.8042829274128844,
        -2.901670773776549,
        0.9726308686478388,
        0.8477418978603902,
        0.26417738332808666,
        0.4005284806709407,
        0.32306286065538115,
        0.21035488863422092,
        -0.43195328363730406,
        0.3627933067454354,
        0.2223521052291153,
        0.9674224653133799,
        -0.22502043265185195,
        0.60376842370555,
        -1.6749790530939626,
        -0.3245621407766328,
        -0.18480326794522148,
        0.0727107671925318,
        -0.029198581527995583,
        -0.08747275363485972,
        -0.1500748659356648,
        -0.05143906497264352,
        -0.14259636893334204
      ],
      [
        0.04256234922198939,
        -0.12412479416310016,
        -0.008373300281355932,
        -0.09003436623995693,
        -0.10037176518268147,
        -0.09003436623995693,
        -0.21422562240118717,
        0.006169948644306004,
        0.04256234922198698,
        0.03596407775055824,
        -0.16060130173597417,
        -0.10779485581695626,
        -0.14403788625454023,
        0.3217048228043456,
        -0.2864175833343436,
        -0.2948952697033458,
        -0.09326906694113375,
        -0.2948952697033458,
        0.2645382021057471,
        -0.20900581380118455,
        -0.14403788625453956,
        -0.08987973754464038,
        0.19127266038466184,
        0.01651507736386964,
        -0.00368779221277494,
        0.17149770600062414,
        0.12801710729489163,
        0.06192444899297889,
        -0.08983076209003579,
        0.06192444899297889,
        0.006727937766761763,
        0.11492632316811434,
        -0.003687792212778356,
        -0.08705251929588018,
        -0.013092626598722328,
        0.022510807591085133,
        0.29419568395184914,
        -1.3386798362525836,
        -0.8292354342793007,
        -0.3952649485653949,
        0.03511405320147586,
        -0.3952649485653949,
        0.2256546204667793,
        0.16624721177720014,
        0.29419568395183815,
        0.3573602989237788,
        0.190846617304043,
        0.21473880522856106,
        0.12967787262244485,
        -0.795236156027251,
        -1.7148052866579273,
        0.005122349081681355,
        0.2997611132121974,
        0.005122349081681355,
        -0.017642836337191846,
        0.11043753629302162,
        0.12967787262245,
        0.13880754430328412,
        0.22914478638303348,
        -0.0015637093929894556,
        0.4051727733251221,
        0.46957432592205317,
        0.690291823477711,
        -0.17354837369853632,
        -0.264174735677561,
        -0.12317473715115869,
        0.02466193917365485,
        -0.3688382130141383,
        1.7194512693543083,
        -0.21060851212073034,
        0.29442629182864744,
        0.18661928802571842,
        -0.17619431278363873,
        0.43974144669679194,
        -0.18303887742678246,
        2.8860984265508147,
        3.3514771289842633,
        0.2867814695839618,
        0.007099892869386122,
        -0.06500209631625783,
        -0.2634923541014099,
        -0.07021370332958977,
        0.03560061536526634
      ],
      [
        0.07592327636831303,
        -0.17950264901995047,
        -0.06814721313264262,
        0.07614996112230572,
        -0.007026580635087443,
        0.07614996112230572,
        -0.03021957143896544,
        -0.022538201632641062,
        0.07592327636831442,
        0.10931361893128386,
        -0.11105245488774748,
        0.09555226227286445,
        -0.008616370279199925,
        -0.034214176903831765,
        0.05775663314171619,
        0.1146387416574609,
        0.007073715972552984,
        0.1146387416574609,
        -0.14105014622464165,
        0.02420343490718879,
        -0.008616370279199136,
        -0.06177334161291408,
        -0.13629895833538988,
        -0.010496494559485845,
        0.07566844222806181,
        -0.0651412092256075,
        0.015447671324987299,
        -0.051956373842056355,
        0.06923664075106173,
        -0.051956373842056355,
        -0.050209616495650165,
        0.01686084113051046,
        0.07566844222805963,
        0.02843037256229112,
        -0.0038132298483322382,
        -0.024385009739228095,
        -0.29277189322828917,
        0.6640493468590192,
        1.1180879751849397,
        0.73272685968611,
        -1.6722732478506463,
        0.73272685968611,
        -0.08327275902766336,
        -0.2738037972354995,
        -0.2927718932282979,
        -0.30385956470445846,
        -0.29225655954716756,
        0.7292434450844129,
        -0.031798797342478466,
        0.09887662108204201,
        0.10744355947232914,
        0.057468645960424725,
        -0.10997645275324171,
        0.057468645960424725,
        -0.0107666200415931,
        -0.029962359990654188,
        -0.03179879734247511,
        -0.03258095888377194,
        -0.027025811789781435,
        -0.0492849268753767,
        0.2464380524291028,
        0.25047084979709194,
        -0.1861375090089733,
        -0.058452980998828036,
        -0.011979697814356942,
        -0.201585569056074,
        -0.18992157894582198,
        0.10423764850518237,
        -0.38065076057722913,
        -0.11709528372764011,
        -0.3642310888726629,
        -0.11820428499402001,
        -0.19433951872674415,
        -6.623579601734663,
        0.42748608117645115,
        0.39847147583032144,
        -0.47209928815026275,
        -0.0862749956734417,
        3.558473657895307e-05,
        0.012271791708388246,
        -0.003634827376076468,
        -0.03926751881429198,
        -0.03833492779026046
      ]
    ],
    "intercepts": [
      0.9578124754883139,
      1.0545606505558291,
      -1.0414759013624753,
      -0.5486426013077963,
      -0.42225462337402436
    ]
  }
}